digraph Tree {
node [shape=box] ;
0 [label="glucose <= 127.5\ngini = 0.454\nsamples = 768\nvalue = [500, 268]"] ;
1 [label="age <= 28.5\ngini = 0.313\nsamples = 485\nvalue = [391, 94]"] ;
0 -> 1 [labeldistance=2.5, labelangle=45, headlabel="True"] ;
2 [label="IMC <= 45.4\ngini = 0.155\nsamples = 271\nvalue = [248, 23]"] ;
1 -> 2 ;
3 [label="IMC <= 30.95\ngini = 0.139\nsamples = 267\nvalue = [247, 20]"] ;
2 -> 3 ;
4 [label="grossesses <= 6.5\ngini = 0.026\nsamples = 151\nvalue = [149, 2]"] ;
3 -> 4 ;
5 [label="fctDiabete <= 0.672\ngini = 0.013\nsamples = 149\nvalue = [148, 1]"] ;
4 -> 5 ;
6 [label="gini = 0.0\nsamples = 130\nvalue = [130, 0]"] ;
5 -> 6 ;
7 [label="gini = 0.1\nsamples = 19\nvalue = [18, 1]"] ;
5 -> 7 ;
8 [label="gini = 0.5\nsamples = 2\nvalue = [1, 1]"] ;
4 -> 8 ;
9 [label="fctDiabete <= 0.501\ngini = 0.262\nsamples = 116\nvalue = [98, 18]"] ;
3 -> 9 ;
10 [label="press_art <= 53.0\ngini = 0.153\nsamples = 72\nvalue = [66, 6]"] ;
9 -> 10 ;
11 [label="gini = 0.5\nsamples = 6\nvalue = [3, 3]"] ;
10 -> 11 ;
12 [label="gini = 0.087\nsamples = 66\nvalue = [63, 3]"] ;
10 -> 12 ;
13 [label="press_art <= 69.0\ngini = 0.397\nsamples = 44\nvalue = [32, 12]"] ;
9 -> 13 ;
14 [label="gini = 0.476\nsamples = 23\nvalue = [14, 9]"] ;
13 -> 14 ;
15 [label="gini = 0.245\nsamples = 21\nvalue = [18, 3]"] ;
13 -> 15 ;
16 [label="age <= 24.5\ngini = 0.375\nsamples = 4\nvalue = [1, 3]"] ;
2 -> 16 ;
17 [label="gini = 0.5\nsamples = 2\nvalue = [1, 1]"] ;
16 -> 17 ;
18 [label="gini = 0.0\nsamples = 2\nvalue = [0, 2]"] ;
16 -> 18 ;
19 [label="IMC <= 26.35\ngini = 0.443\nsamples = 214\nvalue = [143, 71]"] ;
1 -> 19 ;
20 [label="IMC <= 9.65\ngini = 0.093\nsamples = 41\nvalue = [39, 2]"] ;
19 -> 20 ;
21 [label="gini = 0.0\nsamples = 2\nvalue = [0, 2]"] ;
20 -> 21 ;
22 [label="gini = 0.0\nsamples = 39\nvalue = [39, 0]"] ;
20 -> 22 ;
23 [label="glucose <= 99.5\ngini = 0.48\nsamples = 173\nvalue = [104, 69]"] ;
19 -> 23 ;
24 [label="glucose <= 28.5\ngini = 0.298\nsamples = 55\nvalue = [45, 10]"] ;
23 -> 24 ;
25 [label="gini = 0.0\nsamples = 2\nvalue = [0, 2]"] ;
24 -> 25 ;
26 [label="fctDiabete <= 0.796\ngini = 0.256\nsamples = 53\nvalue = [45, 8]"] ;
24 -> 26 ;
27 [label="gini = 0.162\nsamples = 45\nvalue = [41, 4]"] ;
26 -> 27 ;
28 [label="gini = 0.5\nsamples = 8\nvalue = [4, 4]"] ;
26 -> 28 ;
29 [label="fctDiabete <= 0.561\ngini = 0.5\nsamples = 118\nvalue = [59, 59]"] ;
23 -> 29 ;
30 [label="fctDiabete <= 0.2\ngini = 0.482\nsamples = 84\nvalue = [50, 34]"] ;
29 -> 30 ;
31 [label="gini = 0.308\nsamples = 21\nvalue = [17, 4]"] ;
30 -> 31 ;
32 [label="gini = 0.499\nsamples = 63\nvalue = [33, 30]"] ;
30 -> 32 ;
33 [label="grossesses <= 6.5\ngini = 0.389\nsamples = 34\nvalue = [9, 25]"] ;
29 -> 33 ;
34 [label="gini = 0.49\nsamples = 21\nvalue = [9, 12]"] ;
33 -> 34 ;
35 [label="gini = 0.0\nsamples = 13\nvalue = [0, 13]"] ;
33 -> 35 ;
36 [label="IMC <= 29.95\ngini = 0.474\nsamples = 283\nvalue = [109, 174]"] ;
0 -> 36 [labeldistance=2.5, labelangle=-45, headlabel="False"] ;
37 [label="glucose <= 145.5\ngini = 0.432\nsamples = 76\nvalue = [52, 24]"] ;
36 -> 37 ;
38 [label="insuline <= 132.5\ngini = 0.25\nsamples = 41\nvalue = [35, 6]"] ;
37 -> 38 ;
39 [label="IMC <= 28.15\ngini = 0.337\nsamples = 28\nvalue = [22, 6]"] ;
38 -> 39 ;
40 [label="press_art <= 73.0\ngini = 0.227\nsamples = 23\nvalue = [20, 3]"] ;
39 -> 40 ;
41 [label="gini = 0.444\nsamples = 9\nvalue = [6, 3]"] ;
40 -> 41 ;
42 [label="gini = 0.0\nsamples = 14\nvalue = [14, 0]"] ;
40 -> 42 ;
43 [label="peau <= 21.0\ngini = 0.48\nsamples = 5\nvalue = [2, 3]"] ;
39 -> 43 ;
44 [label="gini = 0.444\nsamples = 3\nvalue = [2, 1]"] ;
43 -> 44 ;
45 [label="gini = 0.0\nsamples = 2\nvalue = [0, 2]"] ;
43 -> 45 ;
46 [label="gini = 0.0\nsamples = 13\nvalue = [13, 0]"] ;
38 -> 46 ;
47 [label="age <= 25.5\ngini = 0.5\nsamples = 35\nvalue = [17, 18]"] ;
37 -> 47 ;
48 [label="gini = 0.0\nsamples = 4\nvalue = [4, 0]"] ;
47 -> 48 ;
49 [label="age <= 61.0\ngini = 0.487\nsamples = 31\nvalue = [13, 18]"] ;
47 -> 49 ;
50 [label="IMC <= 27.1\ngini = 0.444\nsamples = 27\nvalue = [9, 18]"] ;
49 -> 50 ;
51 [label="gini = 0.153\nsamples = 12\nvalue = [1, 11]"] ;
50 -> 51 ;
52 [label="gini = 0.498\nsamples = 15\nvalue = [8, 7]"] ;
50 -> 52 ;
53 [label="gini = 0.0\nsamples = 4\nvalue = [4, 0]"] ;
49 -> 53 ;
54 [label="glucose <= 157.5\ngini = 0.399\nsamples = 207\nvalue = [57, 150]"] ;
36 -> 54 ;
55 [label="age <= 30.5\ngini = 0.476\nsamples = 115\nvalue = [45, 70]"] ;
54 -> 55 ;
56 [label="press_art <= 61.0\ngini = 0.497\nsamples = 50\nvalue = [27, 23]"] ;
55 -> 56 ;
57 [label="gini = 0.0\nsamples = 10\nvalue = [0, 10]"] ;
56 -> 57 ;
58 [label="IMC <= 41.8\ngini = 0.439\nsamples = 40\nvalue = [27, 13]"] ;
56 -> 58 ;
59 [label="gini = 0.35\nsamples = 31\nvalue = [24, 7]"] ;
58 -> 59 ;
60 [label="gini = 0.444\nsamples = 9\nvalue = [3, 6]"] ;
58 -> 60 ;
61 [label="fctDiabete <= 0.429\ngini = 0.4\nsamples = 65\nvalue = [18, 47]"] ;
55 -> 61 ;
62 [label="IMC <= 45.55\ngini = 0.497\nsamples = 28\nvalue = [13, 15]"] ;
61 -> 62 ;
63 [label="gini = 0.491\nsamples = 23\nvalue = [13, 10]"] ;
62 -> 63 ;
64 [label="gini = 0.0\nsamples = 5\nvalue = [0, 5]"] ;
62 -> 64 ;
65 [label="insuline <= 333.5\ngini = 0.234\nsamples = 37\nvalue = [5, 32]"] ;
61 -> 65 ;
66 [label="gini = 0.161\nsamples = 34\nvalue = [3, 31]"] ;
65 -> 66 ;
67 [label="gini = 0.444\nsamples = 3\nvalue = [2, 1]"] ;
65 -> 67 ;
68 [label="insuline <= 629.5\ngini = 0.227\nsamples = 92\nvalue = [12, 80]"] ;
54 -> 68 ;
69 [label="fctDiabete <= 0.3\ngini = 0.199\nsamples = 89\nvalue = [10, 79]"] ;
68 -> 69 ;
70 [label="fctDiabete <= 0.288\ngini = 0.365\nsamples = 25\nvalue = [6, 19]"] ;
69 -> 70 ;
71 [label="gini = 0.287\nsamples = 23\nvalue = [4, 19]"] ;
70 -> 71 ;
72 [label="gini = 0.0\nsamples = 2\nvalue = [2, 0]"] ;
70 -> 72 ;
73 [label="age <= 44.0\ngini = 0.117\nsamples = 64\nvalue = [4, 60]"] ;
69 -> 73 ;
74 [label="gini = 0.0\nsamples = 47\nvalue = [0, 47]"] ;
73 -> 74 ;
75 [label="gini = 0.36\nsamples = 17\nvalue = [4, 13]"] ;
73 -> 75 ;
76 [label="gini = 0.444\nsamples = 3\nvalue = [2, 1]"] ;
68 -> 76 ;
}